<?xml version="1.0"?>
<opencv_storage>
<cascade>
  <stageType>BOOST</stageType>
  <featureType>HAAR</featureType>
  <height>24</height>
  <width>24</width>
  <stageParams>
    <boostType>GAB</boostType>
    <minHitRate>9.9500000476837158e-01</minHitRate>
    <maxFalseAlarm>5.0000000000000000e-01</maxFalseAlarm>
    <weightTrimRate>9.4999999999999996e-01</weightTrimRate>
    <maxDepth>1</maxDepth>
    <maxWeakCount>100</maxWeakCount></stageParams>
  <featureParams>
    <maxCatCount>0</maxCatCount>
    <featSize>1</featSize>
    <mode>BASIC</mode></featureParams>
  <stageNum>16</stageNum>
  <stages>
    <!-- stage 0 -->
    <_>
      <maxWeakCount>5</maxWeakCount>
      <stageThreshold>-1.8215335607528687e+00</stageThreshold>
      <weakClassifiers>
        <_>
          <internalNodes>
            0 -1 56 -6.3952073454856873e-02</internalNodes>
          <leafValues>
            8.9940321445465088e-01 -7.6795911788940430e-01</leafValues></_>
        <_>
          <internalNodes>
            0 -1 50 1.7188966274261475e-02</internalNodes>
          <leafValues>
            -8.6747419834136963e-01 5.4124766588211060e-01</leafValues></_>
        <_>
          <internalNodes>
            0 -1 146 -2.9672186821699142e-02</internalNodes>
          <leafValues>
            5.6012976169586182e-01 -7.5314688682556152e-01</leafValues></_>
        <_>
          <internalNodes>
            0 -1 20 1.4243505895137787e-02</internalNodes>
          <leafValues>
            -4.6835711598396301e-01 5.7489800453186035e-01</leafValues></_>
        <_>
          <internalNodes>
            0 -1 129 1.9392056390643120e-02</internalNodes>
          <leafValues>
            -2.7787289023399353e-01 7.5682771205902100e-01</leafValues></_></weakClassifiers></_>
    <!-- stage 1 -->
    <_>
      <maxWeakCount>7</maxWeakCount>
      <stageThreshold>-1.7250189781188965e+00</stageThreshold>
      <weakClassifiers>
        <_>
          <internalNodes>
            0 -1 130 2.8226617723703384e-02</internalNodes>
          <leafValues>
            -7.3641055822372437e-01 8.3479791879653931e-01</leafValues></_>
        <_>
          <internalNodes>
            0 -1 81 -5.5141128599643707e-02</internalNodes>
          <leafValues>
            5.6095796823501587e-01 -5.8290678262710571e-01</leafValues></_>
        <_>
          <internalNodes>
            0 -1 21 -6.8326413631439209e-02</internalNodes>
          <leafValues>
            8.2103532552719116e-01 -3.8826793432235718e-01</leafValues></_>
        <_>
          <internalNodes>
            0 -1 61 1.6690449789166451e-02</internalNodes>
          <leafValues>
            -7.7538073062896729e-01 3.5437381267547607e-01</leafValues></_>
        <_>
          <internalNodes>
            0 -1 53 3.6634266376495361e-02</internalNodes>
          <leafValues>
            -3.7183681130409241e-01 7.7539557218551636e-01</leafValues></_>
        <_>
          <internalNodes>
            0 -1 111 2.2673893719911575e-02</internalNodes>
          <leafValues>
            -2.8032779693603516e-01 7.6820415258407593e-01</leafValues></_>
        <_>
          <internalNodes>
            0 -1 17 2.0737659931182861e-01</internalNodes>
          <leafValues>
            2.8035715222358704e-01 -9.5714819431304932e-01</leafValues></_></weakClassifiers></_>
    <!-- stage 2 -->
    <_>
      <maxWeakCount>7</maxWeakCount>
      <stageThreshold>-1.5786795616149902e+00</stageThreshold>
      <weakClassifiers>
        <_>
          <internalNodes>
            0 -1 52 2.6895945891737938e-02</internalNodes>
          <leafValues>
            -7.3049646615982056e-01 7.7916902303695679e-01</leafValues></_>
        <_>
          <internalNodes>
            0 -1 119 4.8913329839706421e-02</internalNodes>
          <leafValues>
            -4.1564127802848816e-01 8.0165469646453857e-01</leafValues></_>
        <_>
          <internalNodes>
            0 -1 2 -4.7795981168746948e-02</internalNodes>
          <leafValues>
            4.2621985077857971e-01 -7.3265486955642700e-01</leafValues></_>
        <_>
          <internalNodes>
            0 -1 45 1.1534422636032104e-02</internalNodes>
          <leafValues>
            -7.8424417972564697e-01 3.3123362064361572e-01</leafValues></_>
        <_>
          <internalNodes>
            0 -1 135 4.1183838620781898e-03</internalNodes>
          <leafValues>
            -3.4814748167991638e-01 6.0720473527908325e-01</leafValues></_>
        <_>
          <internalNodes>
            0 -1 54 2.4084720760583878e-02</internalNodes>
          <leafValues>
            -2.4188041687011719e-01 7.4445092678070068e-01</leafValues></_>
        <_>
          <internalNodes>
            0 -1 9 3.0755188316106796e-02</internalNodes>
          <leafValues>
            -3.1528085470199585e-01 7.1903288364410400e-01</leafValues></_></weakClassifiers></_>
    <!-- stage 3 -->
    <_>
      <maxWeakCount>9</maxWeakCount>
      <stageThreshold>-1.9793754816055298e+00</stageThreshold>
      <weakClassifiers>
        <_>
          <internalNodes>
            0 -1 56 -8.5783615708351135e-02</internalNodes>
          <leafValues>
            8.8762444257736206e-01 -6.2548691034317017e-01</leafValues></_>
        <_>
          <internalNodes>
            0 -1 37 -7.5626879930496216e-02</internalNodes>
          <leafValues>
            4.0584012866020203e-01 -8.6953818798065186e-01</leafValues></_>
        <_>
          <internalNodes>
            0 -1 132 1.4057897031307220e-02</internalNodes>
          <leafValues>
            -5.3199177980422974e-01 5.2193140983581543e-01</leafValues></_>
        <_>
          <internalNodes>
            0 -1 23 -3.5015180706977844e-02</internalNodes>
          <leafValues>
            -8.5730886459350586e-01 2.7761644124984741e-01</leafValues></_>
        <_>
          <internalNodes>
            0 -1 79 1.1017711833119392e-02</internalNodes>
          <leafValues>
            -7.3562902212142944e-01 2.0932683348655701e-01</leafValues></_>
        <_>
          <internalNodes>
            0 -1 114 -4.4654700905084610e-02</internalNodes>
          <leafValues>
            3.8535672426223755e-01 -4.7279474139213562e-01</leafValues></_>
        <_>
          <internalNodes>
            0 -1 167 2.3968624882400036e-03</internalNodes>
          <leafValues>
            2.3490597307682037e-01 -6.7140281200408936e-01</leafValues></_>
        <_>
          <internalNodes>
            0 -1 90 1.6670148819684982e-02</internalNodes>
          <leafValues>
            -3.1715327501296997e-01 6.3553130626678467e-01</leafValues></_>
        <_>
          <internalNodes>
            0 -1 70 3.7301167845726013e-02</internalNodes>
          <leafValues>
            -1.6652490198612213e-01 8.0810594558715820e-01</leafValues></_></weakClassifiers></_>
    <!-- stage 4 -->
    <_>
      <maxWeakCount>10</maxWeakCount>
      <stageThreshold>-1.5718013048171997e+00</stageThreshold>
      <weakClassifiers>
        <_>
          <internalNodes>
            0 -1 130 3.3712700009346008e-02</internalNodes>
          <leafValues>
            -6.9616335630416870e-01 7.0701354742050171e-01</leafValues></_>
        <_>
          <internalNodes>
            0 -1 31 -4.7734495252370834e-02</internalNodes>
          <leafValues>
            6.3591778278350830e-01 -3.8911318778991699e-01</leafValues></_>
        <_>
          <internalNodes>
            0 -1 152 -1.8859140574932098e-02</internalNodes>
          <leafValues>
            3.3900442719459534e-01 -5.9793716669082642e-01</leafValues></_>
        <_>
          <internalNodes>
            0 -1 80 5.3431894630193710e-03</internalNodes>
          <leafValues>
            -6.0586303472518921e-01 3.0098992586135864e-01</leafValues></_>
        <_>
          <internalNodes>
            0 -1 162 8.6151913274079561e-04</internalNodes>
          <leafValues>
            2.1258035302162170e-01 -8.3645671606063843e-01</leafValues></_>
        <_>
          <internalNodes>
            0 -1 73 8.5975565016269684e-03</internalNodes>
          <leafValues>
            -4.2192959785461426e-01 3.5578975081443787e-01</leafValues></_>
        <_>
          <internalNodes>
            0 -1 143 1.6863863915205002e-02</internalNodes>
          <leafValues>
            -3.0797854065895081e-01 5.7367044687271118e-01</leafValues></_>
        <_>
          <internalNodes>
            0 -1 29 1.6509529203176498e-02</internalNodes>
          <leafValues>
            2.2164347767829895e-01 -8.9636701345443726e-01</leafValues></_>
        <_>
          <internalNodes>
            0 -1 110 7.6614581048488617e-03</internalNodes>
          <leafValues>
            -3.5178017616271973e-01 4.5556357502937317e-01</leafValues></_>
        <_>
          <internalNodes>
            0 -1 125 -1.9743323326110840e-02</internalNodes>
          <leafValues>
            7.2812110185623169e-01 -2.9462850093841553e-01</leafValues></_></weakClassifiers></_>
    <!-- stage 5 -->
    <_>
      <maxWeakCount>8</maxWeakCount>
      <stageThreshold>-1.4708584547042847e+00</stageThreshold>
      <weakClassifiers>
        <_>
          <internalNodes>
            0 -1 56 -6.5611883997917175e-02</internalNodes>
          <leafValues>
            6.2390351295471191e-01 -6.7317378520965576e-01</leafValues></_>
        <_>
          <internalNodes>
            0 -1 116 -2.2081550210714340e-02</internalNodes>
          <leafValues>
            7.4130052328109741e-01 -3.5281386971473694e-01</leafValues></_>
        <_>
          <internalNodes>
            0 -1 62 2.1658875048160553e-02</internalNodes>
          <leafValues>
            -5.9983164072036743e-01 3.5510373115539551e-01</leafValues></_>
        <_>
          <internalNodes>
            0 -1 18 5.9587750583887100e-02</internalNodes>
          <leafValues>
            1.5813457965850830e-01 -9.4811612367630005e-01</leafValues></_>
        <_>
          <internalNodes>
            0 -1 28 1.3750061392784119e-01</internalNodes>
          <leafValues>
            1.2285646051168442e-01 -8.8598680496215820e-01</leafValues></_>
        <_>
          <internalNodes>
            0 -1 5 -9.5251090824604034e-03</internalNodes>
          <leafValues>
            2.1745508909225464e-01 -5.8391404151916504e-01</leafValues></_>
        <_>
          <internalNodes>
            0 -1 85 -1.5910615026950836e-01</internalNodes>
          <leafValues>
            -9.0181136131286621e-01 1.3752220571041107e-01</leafValues></_>
        <_>
          <internalNodes>
            0 -1 172 -8.2692815340124071e-05</internalNodes>
          <leafValues>
            3.2036167383193970e-01 -4.2639082670211792e-01</leafValues></_></weakClassifiers></_>
    <!-- stage 6 -->
    <_>
      <maxWeakCount>11</maxWeakCount>
      <stageThreshold>-1.6978014707565308e+00</stageThreshold>
      <weakClassifiers>
        <_>
          <internalNodes>
            0 -1 126 -5.5475920438766479e-02</internalNodes>
          <leafValues>
            5.1972389221191406e-01 -6.9111710786819458e-01</leafValues></_>
        <_>
          <internalNodes>
            0 -1 40 3.2552875578403473e-02</internalNodes>
          <leafValues>
            -3.1475493311882019e-01 7.6563417911529541e-01</leafValues></_>
        <_>
          <internalNodes>
            0 -1 151 -3.3513806760311127e-02</internalNodes>
          <leafValues>
            3.3856391906738281e-01 -5.4171478748321533e-01</leafValues></_>
        <_>
          <internalNodes>
            0 -1 77 2.8952319175004959e-02</internalNodes>
          <leafValues>
            -7.2283685207366943e-01 2.4458873271942139e-01</leafValues></_>
        <_>
          <internalNodes>
            0 -1 138 1.8501486629247665e-02</internalNodes>
          <leafValues>
            -2.9218274354934692e-01 5.2221763134002686e-01</leafValues></_>
        <_>
          <internalNodes>
            0 -1 168 9.4217713922262192e-04</internalNodes>
          <leafValues>
            1.9301012158393860e-01 -7.3046368360519409e-01</leafValues></_>
        <_>
          <internalNodes>
            0 -1 105 1.2972321128472686e-03</internalNodes>
          <leafValues>
            1.4552360773086548e-01 -8.5380369424819946e-01</leafValues></_>
        <_>
          <internalNodes>
            0 -1 94 -1.0935976170003414e-03</internalNodes>
          <leafValues>
            -7.4354594945907593e-01 1.6371682286262512e-01</leafValues></_>
        <_>
          <internalNodes>
            0 -1 43 8.9030538219958544e-04</internalNodes>
          <leafValues>
            -4.5604225993156433e-01 2.6738330721855164e-01</leafValues></_>
        <_>
          <internalNodes>
            0 -1 100 1.6016097739338875e-02</internalNodes>
          <leafValues>
            -2.2096344828605652e-01 6.2144041061401367e-01</leafValues></_>
        <_>
          <internalNodes>
            0 -1 10 1.2296630442142487e-01</internalNodes>
          <leafValues>
            1.5928138792514801e-01 -9.3369585275650024e-01</leafValues></_></weakClassifiers></_>
    <!-- stage 7 -->
    <_>
      <maxWeakCount>12</maxWeakCount>
      <stageThreshold>-1.3428702354431152e+00</stageThreshold>
      <weakClassifiers>
        <_>
          <internalNodes>
            0 -1 124 8.2984514534473419e-02</internalNodes>
          <leafValues>
            -5.8030480146408081e-01 6.1712849140167236e-01</leafValues></_>
        <_>
          <internalNodes>
            0 -1 113 1.6491174697875977e-02</internalNodes>
          <leafValues>
            -4.6047902107238770e-01 4.5609235763549805e-01</leafValues></_>
        <_>
          <internalNodes>
            0 -1 8 1.7755724489688873e-02</internalNodes>
          <leafValues>
            -4.0906870365142822e-01 4.3064287304878235e-01</leafValues></_>
        <_>
          <internalNodes>
            0 -1 11 -2.6103593409061432e-02</internalNodes>
          <leafValues>
            -7.5290662050247192e-01 1.8037056922912598e-01</leafValues></_>
        <_>
          <internalNodes>
            0 -1 74 -2.0640190690755844e-02</internalNodes>
          <leafValues>
            2.9376643896102905e-01 -4.6058675646781921e-01</leafValues></_>
        <_>
          <internalNodes>
            0 -1 108 2.4501606822013855e-02</internalNodes>
          <leafValues>
            -2.9020008444786072e-01 6.6491675376892090e-01</leafValues></_>
        <_>
          <internalNodes>
            0 -1 158 2.2095283493399620e-03</internalNodes>
          <leafValues>
            2.9103323817253113e-01 -7.3619502782821655e-01</leafValues></_>
        <_>
          <internalNodes>
            0 -1 3 2.7639152482151985e-02</internalNodes>
          <leafValues>
            -3.4591948986053467e-01 3.6990380287170410e-01</leafValues></_>
        <_>
          <internalNodes>
            0 -1 91 2.6848891749978065e-02</internalNodes>
          <leafValues>
            -2.1985961496829987e-01 6.3593906164169312e-01</leafValues></_>
        <_>
          <internalNodes>
            0 -1 25 -5.1690805703401566e-03</internalNodes>
          <leafValues>
            -6.3614207506179810e-01 2.4540102481842041e-01</leafValues></_>
        <_>
          <internalNodes>
            0 -1 60 6.3763717189431190e-03</internalNodes>
          <leafValues>
            -2.4791938066482544e-01 5.9522360563278198e-01</leafValues></_>
        <_>
          <internalNodes>
            0 -1 35 2.1616045385599136e-02</internalNodes>
          <leafValues>
            -4.6012011170387268e-01 3.4949639439582825e-01</leafValues></_></weakClassifiers></_>
    <!-- stage 8 -->
    <_>
      <maxWeakCount>13</maxWeakCount>
      <stageThreshold>-1.5577780008316040e+00</stageThreshold>
      <weakClassifiers>
        <_>
          <internalNodes>
            0 -1 118 -5.4502017796039581e-02</internalNodes>
          <leafValues>
            6.0208815336227417e-01 -6.2210011482238770e-01</leafValues></_>
        <_>
          <internalNodes>
            0 -1 68 -7.0419430732727051e-02</internalNodes>
          <leafValues>
            7.5661903619766235e-01 -2.8599032759666443e-01</leafValues></_>
        <_>
          <internalNodes>
            0 -1 0 -3.3917501568794250e-02</internalNodes>
          <leafValues>
            2.8668418526649475e-01 -5.5739289522171021e-01</leafValues></_>
        <_>
          <internalNodes>
            0 -1 83 2.9841768555343151e-03</internalNodes>
          <leafValues>
            -6.5115451812744141e-01 1.8862892687320709e-01</leafValues></_>
        <_>
          <internalNodes>
            0 -1 76 2.0763682201504707e-02</internalNodes>
          <leafValues>
            1.6620859503746033e-01 -7.5916999578475952e-01</leafValues></_>
        <_>
          <internalNodes>
            0 -1 42 2.0797517150640488e-02</internalNodes>
          <leafValues>
            -2.1984262764453888e-01 5.4115253686904907e-01</leafValues></_>
        <_>
          <internalNodes>
            0 -1 58 1.3592856004834175e-02</internalNodes>
          <leafValues>
            -2.2058409452438354e-01 5.2854567766189575e-01</leafValues></_>
        <_>
          <internalNodes>
            0 -1 150 1.0158063843846321e-02</internalNodes>
          <leafValues>
            -2.4601757526397705e-01 4.6750760078430176e-01</leafValues></_>
        <_>
          <internalNodes>
            0 -1 160 -3.7561226636171341e-03</internalNodes>
          <leafValues>
            -7.2853243350982666e-01 1.5955242514610291e-01</leafValues></_>
        <_>
          <internalNodes>
            0 -1 96 9.1883158311247826e-03</internalNodes>
          <leafValues>
            -2.4948278069496155e-01 4.5997935533523560e-01</leafValues></_>
        <_>
          <internalNodes>
            0 -1 98 3.5417317412793636e-03</internalNodes>
          <leafValues>
            -2.8753694891929626e-01 5.2598196268081665e-01</leafValues></_>
        <_>
          <internalNodes>
            0 -1 67 -1.8153838813304901e-02</internalNodes>
          <leafValues>
            5.6661683320999146e-01 -1.9755968451499939e-01</leafValues></_>
        <_>
          <internalNodes>
            0 -1 48 -1.1919767130166292e-03</internalNodes>
          <leafValues>
            -8.3255290985107422e-01 1.7537993192672729e-01</leafValues></_></weakClassifiers></_>
    <!-- stage 9 -->
    <_>
      <maxWeakCount>12</maxWeakCount>
      <stageThreshold>-1.6999117136001587e+00</stageThreshold>
      <weakClassifiers>
        <_>
          <internalNodes>
            0 -1 39 5.3170341998338699e-02</internalNodes>
          <leafValues>
            -6.1329889297485352e-01 4.7318610548973083e-01</leafValues></_>
        <_>
          <internalNodes>
            0 -1 159 -1.4924102462828159e-02</internalNodes>
          <leafValues>
            4.3903434276580811e-01 -4.2779597640037537e-01</leafValues></_>
        <_>
          <internalNodes>
            0 -1 112 3.7306458689272404e-03</internalNodes>
          <leafValues>
            -5.0337409973144531e-01 3.0018258094787598e-01</leafValues></_>
        <_>
          <internalNodes>
            0 -1 51 -2.6994422078132629e-02</internalNodes>
          <leafValues>
            1.4353840053081512e-01 -9.2372125387191772e-01</leafValues></_>
        <_>
          <internalNodes>
            0 -1 171 -7.8808414400555193e-05</internalNodes>
          <leafValues>
            3.1796523928642273e-01 -3.9332225918769836e-01</leafValues></_>
        <_>
          <internalNodes>
            0 -1 104 4.4372424483299255e-02</internalNodes>
          <leafValues>
            1.5072445571422577e-01 -8.0552202463150024e-01</leafValues></_>
        <_>
          <internalNodes>
            0 -1 174 -1.1471845209598541e-03</internalNodes>
          <leafValues>
            -7.3924088478088379e-01 1.7952966690063477e-01</leafValues></_>
        <_>
          <internalNodes>
            0 -1 32 8.0336838960647583e-02</internalNodes>
          <leafValues>
            1.0994781553745270e-01 -7.9666721820831299e-01</leafValues></_>
        <_>
          <internalNodes>
            0 -1 12 -1.3339275121688843e-01</internalNodes>
          <leafValues>
            -9.2204225063323975e-01 1.0488131642341614e-01</leafValues></_>
        <_>
          <internalNodes>
            0 -1 47 1.7134409397840500e-02</internalNodes>
          <leafValues>
            -7.1163505315780640e-01 1.3738235831260681e-01</leafValues></_>
        <_>
          <internalNodes>
            0 -1 144 -1.2079403735697269e-02</internalNodes>
          <leafValues>
            6.1717706918716431e-01 -2.5002935528755188e-01</leafValues></_>
        <_>
          <internalNodes>
            0 -1 142 9.9175684154033661e-03</internalNodes>
          <leafValues>
            -2.0927043259143829e-01 4.8392635583877563e-01</leafValues></_></weakClassifiers></_>
    <!-- stage 10 -->
    <_>
      <maxWeakCount>12</maxWeakCount>
      <stageThreshold>-1.4349085092544556e+00</stageThreshold>
      <weakClassifiers>
        <_>
          <internalNodes>
            0 -1 4 -1.7953321337699890e-01</internalNodes>
          <leafValues>
            5.6382977962493896e-01 -5.9068924188613892e-01</leafValues></_>
        <_>
          <internalNodes>
            0 -1 154 -2.5786742568016052e-02</internalNodes>
          <leafValues>
            2.9505589604377747e-01 -6.0355937480926514e-01</leafValues></_>
        <_>
          <internalNodes>
            0 -1 115 -2.1093495190143585e-02</internalNodes>
          <leafValues>
            6.1181515455245972e-01 -2.6682135462760925e-01</leafValues></_>
        <_>
          <internalNodes>
            0 -1 164 -8.1426565884612501e-05</internalNodes>
          <leafValues>
            2.3819184303283691e-01 -5.2838617563247681e-01</leafValues></_>
        <_>
          <internalNodes>
            0 -1 13 3.3220655750483274e-03</internalNodes>
          <leafValues>
            -4.0505746006965637e-01 3.7072566151618958e-01</leafValues></_>
        <_>
          <internalNodes>
            0 -1 65 4.3102968484163284e-03</internalNodes>
          <leafValues>
            -7.2326487302780151e-01 1.3355346024036407e-01</leafValues></_>
        <_>
          <internalNodes>
            0 -1 27 5.1922000944614410e-02</internalNodes>
          <leafValues>
            1.3180284202098846e-01 -8.5109132528305054e-01</leafValues></_>
        <_>
          <internalNodes>
            0 -1 131 2.3149764165282249e-03</internalNodes>
          <leafValues>
            -2.3289789259433746e-01 5.5003255605697632e-01</leafValues></_>
        <_>
          <internalNodes>
            0 -1 157 6.0501729603856802e-04</internalNodes>
          <leafValues>
            2.1052242815494537e-01 -6.3360220193862915e-01</leafValues></_>
        <_>
          <internalNodes>
            0 -1 87 9.1662164777517319e-03</internalNodes>
          <leafValues>
            -2.5243288278579712e-01 5.0535494089126587e-01</leafValues></_>
        <_>
          <internalNodes>
            0 -1 123 -2.7291458100080490e-02</internalNodes>
          <leafValues>
            5.1098436117172241e-01 -2.2604744136333466e-01</leafValues></_>
        <_>
          <internalNodes>
            0 -1 34 1.5886468812823296e-02</internalNodes>
          <leafValues>
            -2.2370837628841400e-01 5.1486337184906006e-01</leafValues></_></weakClassifiers></_>
    <!-- stage 11 -->
    <_>
      <maxWeakCount>14</maxWeakCount>
      <stageThreshold>-1.5369759798049927e+00</stageThreshold>
      <weakClassifiers>
        <_>
          <internalNodes>
            0 -1 22 -1.0671033710241318e-01</internalNodes>
          <leafValues>
            4.4203281402587891e-01 -5.8984249830245972e-01</leafValues></_>
        <_>
          <internalNodes>
            0 -1 78 1.0052176192402840e-02</internalNodes>
          <leafValues>
            -6.1394667625427246e-01 2.5763452053070068e-01</leafValues></_>
        <_>
          <internalNodes>
            0 -1 107 -3.9450738579034805e-02</internalNodes>
          <leafValues>
            3.3987972140312195e-01 -4.0294685959815979e-01</leafValues></_>
        <_>
          <internalNodes>
            0 -1 46 2.1860823035240173e-02</internalNodes>
          <leafValues>
            2.7698466181755066e-01 -6.2422764301300049e-01</leafValues></_>
        <_>
          <internalNodes>
            0 -1 122 2.6841957122087479e-02</internalNodes>
          <leafValues>
            -2.1626862883567810e-01 5.7028079032897949e-01</leafValues></_>
        <_>
          <internalNodes>
            0 -1 102 5.4332945495843887e-02</internalNodes>
          <leafValues>
            -2.2634698450565338e-01 6.5854209661483765e-01</leafValues></_>
        <_>
          <internalNodes>
            0 -1 139 1.2502847239375114e-02</internalNodes>
          <leafValues>
            -2.9728266596794128e-01 3.7590870261192322e-01</leafValues></_>
        <_>
          <internalNodes>
            0 -1 15 -3.2859191298484802e-02</internalNodes>
          <leafValues>
            -7.6128089427947998e-01 1.7621317505836487e-01</leafValues></_>
        <_>
          <internalNodes>
            0 -1 145 8.3134481683373451e-03</internalNodes>
          <leafValues>
            -2.8572061657905579e-01 4.1119599342346191e-01</leafValues></_>
        <_>
          <internalNodes>
            0 -1 155 -1.1394502595067024e-02</internalNodes>
          <leafValues>
            4.8501345515251160e-01 -2.1770107746124268e-01</leafValues></_>
        <_>
          <internalNodes>
            0 -1 63 4.9246540293097496e-03</internalNodes>
          <leafValues>
            -7.8159654140472412e-01 1.3219703733921051e-01</leafValues></_>
        <_>
          <internalNodes>
            0 -1 133 1.3917444739490747e-03</internalNodes>
          <leafValues>
            -2.5522026419639587e-01 4.4001582264900208e-01</leafValues></_>
        <_>
          <internalNodes>
            0 -1 95 1.3906456530094147e-02</internalNodes>
          <leafValues>
            -3.2659068703651428e-01 3.8517281413078308e-01</leafValues></_>
        <_>
          <internalNodes>
            0 -1 120 1.2321408092975616e-01</internalNodes>
          <leafValues>
            1.4883981645107269e-01 -7.7986699342727661e-01</leafValues></_></weakClassifiers></_>
    <!-- stage 12 -->
    <_>
      <maxWeakCount>14</maxWeakCount>
      <stageThreshold>-1.3569282293319702e+00</stageThreshold>
      <weakClassifiers>
        <_>
          <internalNodes>
            0 -1 69 -1.0416463017463684e-01</internalNodes>
          <leafValues>
            5.4447442293167114e-01 -5.1422071456909180e-01</leafValues></_>
        <_>
          <internalNodes>
            0 -1 141 5.0725555047392845e-03</internalNodes>
          <leafValues>
            -3.4490296244621277e-01 4.6889594197273254e-01</leafValues></_>
        <_>
          <internalNodes>
            0 -1 163 -3.5128658637404442e-03</internalNodes>
          <leafValues>
            -6.5760976076126099e-01 1.8444155156612396e-01</leafValues></_>
        <_>
          <internalNodes>
            0 -1 38 -7.7982716262340546e-02</internalNodes>
          <leafValues>
            1.7723856866359711e-01 -8.4033215045928955e-01</leafValues></_>
        <_>
          <internalNodes>
            0 -1 140 3.3538821153342724e-03</internalNodes>
          <leafValues>
            -4.7369208931922913e-01 2.0417626202106476e-01</leafValues></_>
        <_>
          <internalNodes>
            0 -1 101 -1.2787312269210815e-02</internalNodes>
          <leafValues>
            6.6442376375198364e-01 -1.6858093440532684e-01</leafValues></_>
        <_>
          <internalNodes>
            0 -1 72 6.4994702115654945e-03</internalNodes>
          <leafValues>
            -2.0285576581954956e-01 5.2502459287643433e-01</leafValues></_>
        <_>
          <internalNodes>
            0 -1 149 -3.6604474298655987e-03</internalNodes>
          <leafValues>
            4.9060881137847900e-01 -1.9005763530731201e-01</leafValues></_>
        <_>
          <internalNodes>
            0 -1 44 -1.6380981542170048e-03</internalNodes>
          <leafValues>
            -5.7232612371444702e-01 1.6848282516002655e-01</leafValues></_>
        <_>
          <internalNodes>
            0 -1 170 -7.8828234109096229e-05</internalNodes>
          <leafValues>
            3.0162447690963745e-01 -3.3269900083541870e-01</leafValues></_>
        <_>
          <internalNodes>
            0 -1 64 6.2069213017821312e-03</internalNodes>
          <leafValues>
            -6.8430447578430176e-01 1.6956426203250885e-01</leafValues></_>
        <_>
          <internalNodes>
            0 -1 156 -2.5203649420291185e-03</internalNodes>
          <leafValues>
            3.9155912399291992e-01 -2.5222215056419373e-01</leafValues></_>
        <_>
          <internalNodes>
            0 -1 148 3.0052077025175095e-02</internalNodes>
          <leafValues>
            -1.7996810376644135e-01 6.1394011974334717e-01</leafValues></_>
        <_>
          <internalNodes>
            0 -1 127 3.5718344151973724e-02</internalNodes>
          <leafValues>
            1.4533194899559021e-01 -8.4992265701293945e-01</leafValues></_></weakClassifiers></_>
    <!-- stage 13 -->
    <_>
      <maxWeakCount>13</maxWeakCount>
      <stageThreshold>-1.3733425140380859e+00</stageThreshold>
      <weakClassifiers>
        <_>
          <internalNodes>
            0 -1 26 -1.7152291536331177e-01</internalNodes>
          <leafValues>
            4.3176734447479248e-01 -5.5168122053146362e-01</leafValues></_>
        <_>
          <internalNodes>
            0 -1 128 -3.0730757862329483e-02</internalNodes>
          <leafValues>
            4.7975611686706543e-01 -3.5171598196029663e-01</leafValues></_>
        <_>
          <internalNodes>
            0 -1 59 -4.7053758054971695e-02</internalNodes>
          <leafValues>
            7.7712512016296387e-01 -1.5186801552772522e-01</leafValues></_>
        <_>
          <internalNodes>
            0 -1 6 -6.6231980919837952e-02</internalNodes>
          <leafValues>
            2.3190952837467194e-01 -5.1172286272048950e-01</leafValues></_>
        <_>
          <internalNodes>
            0 -1 88 -7.9005196690559387e-02</internalNodes>
          <leafValues>
            6.2083905935287476e-01 -1.7797312140464783e-01</leafValues></_>
        <_>
          <internalNodes>
            0 -1 106 -8.9675024151802063e-02</internalNodes>
          <leafValues>
            -7.4339944124221802e-01 1.8651404976844788e-01</leafValues></_>
        <_>
          <internalNodes>
            0 -1 33 1.1969672515988350e-02</internalNodes>
          <leafValues>
            1.4122556149959564e-01 -7.3991847038269043e-01</leafValues></_>
        <_>
          <internalNodes>
            0 -1 24 1.6479186713695526e-01</internalNodes>
          <leafValues>
            8.9043147861957550e-02 -9.2750209569931030e-01</leafValues></_>
        <_>
          <internalNodes>
            0 -1 109 2.1133359521627426e-02</internalNodes>
          <leafValues>
            -3.0743095278739929e-01 3.6083793640136719e-01</leafValues></_>
        <_>
          <internalNodes>
            0 -1 136 1.3074113521724939e-03</internalNodes>
          <leafValues>
            1.2341426312923431e-01 -8.1695002317428589e-01</leafValues></_>
        <_>
          <internalNodes>
            0 -1 57 4.9149570986628532e-03</internalNodes>
          <leafValues>
            -2.8558486700057983e-01 3.5295432806015015e-01</leafValues></_>
        <_>
          <internalNodes>
            0 -1 161 -2.4687564000487328e-03</internalNodes>
          <leafValues>
            -6.6959375143051147e-01 1.7696444690227509e-01</leafValues></_>
        <_>
          <internalNodes>
            0 -1 86 4.8823109827935696e-03</internalNodes>
          <leafValues>
            -2.3575778305530548e-01 4.4420495629310608e-01</leafValues></_></weakClassifiers></_>
    <!-- stage 14 -->
    <_>
      <maxWeakCount>16</maxWeakCount>
      <stageThreshold>-1.3984167575836182e+00</stageThreshold>
      <weakClassifiers>
        <_>
          <internalNodes>
            0 -1 71 4.6456836163997650e-02</internalNodes>
          <leafValues>
            -5.4399758577346802e-01 4.7194328904151917e-01</leafValues></_>
        <_>
          <internalNodes>
            0 -1 55 -5.7318799197673798e-02</internalNodes>
          <leafValues>
            6.6332119703292847e-01 -2.1782472729682922e-01</leafValues></_>
        <_>
          <internalNodes>
            0 -1 1 4.9171775579452515e-02</internalNodes>
          <leafValues>
            2.1100376546382904e-01 -6.2875854969024658e-01</leafValues></_>
        <_>
          <internalNodes>
            0 -1 49 4.0423497557640076e-03</internalNodes>
          <leafValues>
            -8.0833977460861206e-01 1.5972059965133667e-01</leafValues></_>
        <_>
          <internalNodes>
            0 -1 89 1.0338927619159222e-02</internalNodes>
          <leafValues>
            -3.3962768316268921e-01 4.6823990345001221e-01</leafValues></_>
        <_>
          <internalNodes>
            0 -1 82 -8.8400557637214661e-02</internalNodes>
          <leafValues>
            3.6887586116790771e-01 -3.9036279916763306e-01</leafValues></_>
        <_>
          <internalNodes>
            0 -1 117 1.5466321259737015e-02</internalNodes>
          <leafValues>
            -2.3303964734077454e-01 7.0453023910522461e-01</leafValues></_>
        <_>
          <internalNodes>
            0 -1 153 -1.3798092259094119e-03</internalNodes>
          <leafValues>
            -3.5659539699554443e-01 3.2702371478080750e-01</leafValues></_>
        <_>
          <internalNodes>
            0 -1 92 1.0991323739290237e-02</internalNodes>
          <leafValues>
            1.5212213993072510e-01 -6.8252909183502197e-01</leafValues></_>
        <_>
          <internalNodes>
            0 -1 14 -4.3719336390495300e-02</internalNodes>
          <leafValues>
            -9.2084187269210815e-01 7.7306538820266724e-02</leafValues></_>
        <_>
          <internalNodes>
            0 -1 169 1.1570572387427092e-03</internalNodes>
          <leafValues>
            7.8606091439723969e-02 -8.7972015142440796e-01</leafValues></_>
        <_>
          <internalNodes>
            0 -1 103 -9.8084516823291779e-02</internalNodes>
          <leafValues>
            8.2720410823822021e-01 -1.2965089082717896e-01</leafValues></_>
        <_>
          <internalNodes>
            0 -1 97 2.3025453090667725e-02</internalNodes>
          <leafValues>
            -2.6874992251396179e-01 4.2056402564048767e-01</leafValues></_>
        <_>
          <internalNodes>
            0 -1 41 8.8756543118506670e-04</internalNodes>
          <leafValues>
            -2.6583006978034973e-01 3.5547882318496704e-01</leafValues></_>
        <_>
          <internalNodes>
            0 -1 147 1.6396157443523407e-02</internalNodes>
          <leafValues>
            -1.3389833271503448e-01 5.7979643344879150e-01</leafValues></_>
        <_>
          <internalNodes>
            0 -1 173 -8.1837220932357013e-05</internalNodes>
          <leafValues>
            2.5650489330291748e-01 -3.6511656641960144e-01</leafValues></_></weakClassifiers></_>
    <!-- stage 15 -->
    <_>
      <maxWeakCount>15</maxWeakCount>
      <stageThreshold>-1.6471028327941895e+00</stageThreshold>
      <weakClassifiers>
        <_>
          <internalNodes>
            0 -1 134 8.9360728859901428e-02</internalNodes>
          <leafValues>
            -5.1097923517227173e-01 4.4294479489326477e-01</leafValues></_>
        <_>
          <internalNodes>
            0 -1 84 6.5215779468417168e-03</internalNodes>
          <leafValues>
            -6.2049013376235962e-01 2.1003624796867371e-01</leafValues></_>
        <_>
          <internalNodes>
            0 -1 75 1.2951123528182507e-02</internalNodes>
          <leafValues>
            -3.4257307648658752e-01 4.0508270263671875e-01</leafValues></_>
        <_>
          <internalNodes>
            0 -1 36 -1.5222420915961266e-03</internalNodes>
          <leafValues>
            -7.6880997419357300e-01 2.0717702805995941e-01</leafValues></_>
        <_>
          <internalNodes>
            0 -1 19 8.3816383266821504e-05</internalNodes>
          <leafValues>
            -3.5042464733123779e-01 3.1173560023307800e-01</leafValues></_>
        <_>
          <internalNodes>
            0 -1 66 5.4371245205402374e-03</internalNodes>
          <leafValues>
            -2.3063264787197113e-01 4.9064645171165466e-01</leafValues></_>
        <_>
          <internalNodes>
            0 -1 16 2.0341630280017853e-01</internalNodes>
          <leafValues>
            8.0699048936367035e-02 -9.4363451004028320e-01</leafValues></_>
        <_>
          <internalNodes>
            0 -1 7 -7.7529838308691978e-03</internalNodes>
          <leafValues>
            2.0580868422985077e-01 -4.9808672070503235e-01</leafValues></_>
        <_>
          <internalNodes>
            0 -1 30 3.9191000163555145e-02</internalNodes>
          <leafValues>
            -1.7795687913894653e-01 6.7195314168930054e-01</leafValues></_>
        <_>
          <internalNodes>
            0 -1 93 5.1162891089916229e-02</internalNodes>
          <leafValues>
            1.4905737340450287e-01 -8.2686138153076172e-01</leafValues></_>
        <_>
          <internalNodes>
            0 -1 99 9.8843782325275242e-05</internalNodes>
          <leafValues>
            -3.3570200204849243e-01 2.7808773517608643e-01</leafValues></_>
        <_>
          <internalNodes>
            0 -1 165 -1.5053297393023968e-03</internalNodes>
          <leafValues>
            -6.7201107740402222e-01 1.2748806178569794e-01</leafValues></_>
        <_>
          <internalNodes>
            0 -1 137 1.3684588484466076e-02</internalNodes>
          <leafValues>
            1.9493781030178070e-01 -4.5551821589469910e-01</leafValues></_>
        <_>
          <internalNodes>
            0 -1 166 -1.7934832721948624e-03</internalNodes>
          <leafValues>
            -7.2898906469345093e-01 1.2466903775930405e-01</leafValues></_>
        <_>
          <internalNodes>
            0 -1 121 4.5647937804460526e-03</internalNodes>
          <leafValues>
            -1.8169136345386505e-01 5.3571414947509766e-01</leafValues></_></weakClassifiers></_></stages>
  <features>
    <_>
      <rects>
        <_>
          0 0 10 10 -1.</_>
        <_>
          0 5 10 5 2.</_></rects>
      <tilted>0</tilted></_>
    <_>
      <rects>
        <_>
          0 0 20 12 -1.</_>
        <_>
          10 0 10 12 2.</_></rects>
      <tilted>0</tilted></_>
    <_>
      <rects>
        <_>
          0 0 23 15 -1.</_>
        <_>
          0 5 23 5 3.</_></rects>
      <tilted>0</tilted></_>
    <_>
      <rects>
        <_>
          0 2 9 13 -1.</_>
        <_>
          3 2 3 13 3.</_></rects>
      <tilted>0</tilted></_>
    <_>
      <rects>
        <_>
          0 2 15 13 -1.</_>
        <_>
          5 2 5 13 3.</_></rects>
      <tilted>0</tilted></_>
    <_>
      <rects>
        <_>
          0 2 8 8 -1.</_>
        <_>
          0 6 8 4 2.</_></rects>
      <tilted>0</tilted></_>
    <_>
      <rects>
        <_>
          0 2 24 12 -1.</_>
        <_>
          0 6 24 4 3.</_></rects>
      <tilted>0</tilted></_>
    <_>
      <rects>
        <_>
          0 4 8 6 -1.</_>
        <_>
          0 7 8 3 2.</_></rects>
      <tilted>0</tilted></_>
    <_>
      <rects>
        <_>
          0 6 6 16 -1.</_>
        <_>
          0 6 3 8 2.</_>
        <_>
          3 14 3 8 2.</_></rects>
      <tilted>0</tilted></_>
    <_>
      <rects>
        <_>
          0 6 9 11 -1.</_>
        <_>
          3 6 3 11 3.</_></rects>
      <tilted>0</tilted></_>
    <_>
      <rects>
        <_>
          0 6 24 12 -1.</_>
        <_>
          0 12 24 6 2.</_></rects>
      <tilted>0</tilted></_>
    <_>
      <rects>
        <_>
          0 7 23 10 -1.</_>
        <_>
          0 12 23 5 2.</_></rects>
      <tilted>0</tilted></_>
    <_>
      <rects>
        <_>
          0 7 24 15 -1.</_>
        <_>
          0 12 24 5 3.</_></rects>
      <tilted>0</tilted></_>
    <_>
      <rects>
        <_>
          0 8 5 15 -1.</_>
        <_>
          0 13 5 5 3.</_></rects>
      <tilted>0</tilted></_>
    <_>
      <rects>
        <_>
          0 8 24 8 -1.</_>
        <_>
          0 12 24 4 2.</_></rects>
      <tilted>0</tilted></_>
    <_>
      <rects>
        <_>
          0 9 23 8 -1.</_>
        <_>
          0 13 23 4 2.</_></rects>
      <tilted>0</tilted></_>
    <_>
      <rects>
        <_>
          0 10 20 14 -1.</_>
        <_>
          0 17 20 7 2.</_></rects>
      <tilted>0</tilted></_>
    <_>
      <rects>
        <_>
          0 10 24 14 -1.</_>
        <_>
          0 17 24 7 2.</_></rects>
      <tilted>0</tilted></_>
    <_>
      <rects>
        <_>
          0 16 24 6 -1.</_>
        <_>
          0 19 24 3 2.</_></rects>
      <tilted>0</tilted></_>
    <_>
      <rects>
        <_>
          0 20 2 1 -1.</_>
        <_>
          1 20 1 1 2.</_></rects>
      <tilted>0</tilted></_>
    <_>
      <rects>
        <_>
          1 3 6 16 -1.</_>
        <_>
          3 3 2 16 3.</_></rects>
      <tilted>0</tilted></_>
    <_>
      <rects>
        <_>
          1 5 12 8 -1.</_>
        <_>
          5 5 4 8 3.</_></rects>
      <tilted>0</tilted></_>
    <_>
      <rects>
        <_>
          1 5 12 9 -1.</_>
        <_>
          5 5 4 9 3.</_></rects>
      <tilted>0</tilted></_>
    <_>
      <rects>
        <_>
          1 7 22 10 -1.</_>
        <_>
          1 12 22 5 2.</_></rects>
      <tilted>0</tilted></_>
    <_>
      <rects>
        <_>
          1 11 23 12 -1.</_>
        <_>
          1 17 23 6 2.</_></rects>
      <tilted>0</tilted></_>
    <_>
      <rects>
        <_>
          1 12 4 12 -1.</_>
        <_>
          1 16 4 4 3.</_></rects>
      <tilted>0</tilted></_>
    <_>
      <rects>
        <_>
          1 14 21 7 -1.</_>
        <_>
          8 14 7 7 3.</_></rects>
      <tilted>0</tilted></_>
    <_>
      <rects>
        <_>
          1 18 23 6 -1.</_>
        <_>
          1 21 23 3 2.</_></rects>
      <tilted>0</tilted></_>
    <_>
      <rects>
        <_>
          2 0 22 11 -1.</_>
        <_>
          13 0 11 11 2.</_></rects>
      <tilted>0</tilted></_>
    <_>
      <rects>
        <_>
          2 0 22 21 -1.</_>
        <_>
          2 7 22 7 3.</_></rects>
      <tilted>0</tilted></_>
    <_>
      <rects>
        <_>
          2 2 10 6 -1.</_>
        <_>
          2 2 5 3 2.</_>
        <_>
          7 5 5 3 2.</_></rects>
      <tilted>0</tilted></_>
    <_>
      <rects>
        <_>
          2 3 6 12 -1.</_>
        <_>
          5 3 3 12 2.</_></rects>
      <tilted>0</tilted></_>
    <_>
      <rects>
        <_>
          2 5 22 7 -1.</_>
        <_>
          13 5 11 7 2.</_></rects>
      <tilted>0</tilted></_>
    <_>
      <rects>
        <_>
          2 5 21 18 -1.</_>
        <_>
          2 11 21 6 3.</_></rects>
      <tilted>0</tilted></_>
    <_>
      <rects>
        <_>
          2 8 8 8 -1.</_>
        <_>
          2 8 4 4 2.</_>
        <_>
          6 12 4 4 2.</_></rects>
      <tilted>0</tilted></_>
    <_>
      <rects>
        <_>
          2 17 17 6 -1.</_>
        <_>
          2 20 17 3 2.</_></rects>
      <tilted>0</tilted></_>
    <_>
      <rects>
        <_>
          3 0 14 3 -1.</_>
        <_>
          3 1 14 1 3.</_></rects>
      <tilted>0</tilted></_>
    <_>
      <rects>
        <_>
          3 0 20 24 -1.</_>
        <_>
          3 8 20 8 3.</_></rects>
      <tilted>0</tilted></_>
    <_>
      <rects>
        <_>
          3 0 21 24 -1.</_>
        <_>
          3 8 21 8 3.</_></rects>
      <tilted>0</tilted></_>
    <_>
      <rects>
        <_>
          3 3 12 8 -1.</_>
        <_>
          3 3 6 4 2.</_>
        <_>
          9 7 6 4 2.</_></rects>
      <tilted>0</tilted></_>
    <_>
      <rects>
        <_>
          3 4 8 6 -1.</_>
        <_>
          3 4 4 3 2.</_>
        <_>
          7 7 4 3 2.</_></rects>
      <tilted>0</tilted></_>
    <_>
      <rects>
        <_>
          3 5 3 6 -1.</_>
        <_>
          3 7 3 2 3.</_></rects>
      <tilted>0</tilted></_>
    <_>
      <rects>
        <_>
          3 8 6 12 -1.</_>
        <_>
          3 8 3 6 2.</_>
        <_>
          6 14 3 6 2.</_></rects>
      <tilted>0</tilted></_>
    <_>
      <rects>
        <_>
          3 9 4 15 -1.</_>
        <_>
          3 14 4 5 3.</_></rects>
      <tilted>0</tilted></_>
    <_>
      <rects>
        <_>
          3 12 3 12 -1.</_>
        <_>
          3 16 3 4 3.</_></rects>
      <tilted>0</tilted></_>
    <_>
      <rects>
        <_>
          3 15 16 6 -1.</_>
        <_>
          3 18 16 3 2.</_></rects>
      <tilted>0</tilted></_>
    <_>
      <rects>
        <_>
          3 15 16 9 -1.</_>
        <_>
          3 18 16 3 3.</_></rects>
      <tilted>0</tilted></_>
    <_>
      <rects>
        <_>
          3 15 19 6 -1.</_>
        <_>
          3 18 19 3 2.</_></rects>
      <tilted>0</tilted></_>
    <_>
      <rects>
        <_>
          3 16 1 6 -1.</_>
        <_>
          3 18 1 2 3.</_></rects>
      <tilted>0</tilted></_>
    <_>
      <rects>
        <_>
          3 16 15 4 -1.</_>
        <_>
          3 18 15 2 2.</_></rects>
      <tilted>0</tilted></_>
    <_>
      <rects>
        <_>
          3 16 16 6 -1.</_>
        <_>
          3 19 16 3 2.</_></rects>
      <tilted>0</tilted></_>
    <_>
      <rects>
        <_>
          4 0 18 24 -1.</_>
        <_>
          4 8 18 8 3.</_></rects>
      <tilted>0</tilted></_>
    <_>
      <rects>
        <_>
          4 3 10 8 -1.</_>
        <_>
          4 3 5 4 2.</_>
        <_>
          9 7 5 4 2.</_></rects>
      <tilted>0</tilted></_>
    <_>
      <rects>
        <_>
          4 4 9 10 -1.</_>
        <_>
          7 4 3 10 3.</_></rects>
      <tilted>0</tilted></_>
    <_>
      <rects>
        <_>
          4 7 9 5 -1.</_>
        <_>
          7 7 3 5 3.</_></rects>
      <tilted>0</tilted></_>
    <_>
      <rects>
        <_>
          4 8 6 10 -1.</_>
        <_>
          4 8 3 5 2.</_>
        <_>
          7 13 3 5 2.</_></rects>
      <tilted>0</tilted></_>
    <_>
      <rects>
        <_>
          4 8 10 12 -1.</_>
        <_>
          4 8 5 6 2.</_>
        <_>
          9 14 5 6 2.</_></rects>
      <tilted>0</tilted></_>
    <_>
      <rects>
        <_>
          4 9 6 5 -1.</_>
        <_>
          6 9 2 5 3.</_></rects>
      <tilted>0</tilted></_>
    <_>
      <rects>
        <_>
          4 9 6 3 -1.</_>
        <_>
          7 9 3 3 2.</_></rects>
      <tilted>0</tilted></_>
    <_>
      <rects>
        <_>
          4 9 6 8 -1.</_>
        <_>
          4 9 3 4 2.</_>
        <_>
          7 13 3 4 2.</_></rects>
      <tilted>0</tilted></_>
    <_>
      <rects>
        <_>
          4 12 6 2 -1.</_>
        <_>
          6 12 2 2 3.</_></rects>
      <tilted>0</tilted></_>
    <_>
      <rects>
        <_>
          4 15 13 8 -1.</_>
        <_>
          4 19 13 4 2.</_></rects>
      <tilted>0</tilted></_>
    <_>
      <rects>
        <_>
          4 15 16 6 -1.</_>
        <_>
          4 18 16 3 2.</_></rects>
      <tilted>0</tilted></_>
    <_>
      <rects>
        <_>
          4 17 17 4 -1.</_>
        <_>
          4 19 17 2 2.</_></rects>
      <tilted>0</tilted></_>
    <_>
      <rects>
        <_>
          4 18 17 4 -1.</_>
        <_>
          4 20 17 2 2.</_></rects>
      <tilted>0</tilted></_>
    <_>
      <rects>
        <_>
          4 19 15 4 -1.</_>
        <_>
          4 21 15 2 2.</_></rects>
      <tilted>0</tilted></_>
    <_>
      <rects>
        <_>
          5 2 12 3 -1.</_>
        <_>
          5 3 12 1 3.</_></rects>
      <tilted>0</tilted></_>
    <_>
      <rects>
        <_>
          5 6 12 2 -1.</_>
        <_>
          9 6 4 2 3.</_></rects>
      <tilted>0</tilted></_>
    <_>
      <rects>
        <_>
          5 7 6 14 -1.</_>
        <_>
          5 7 3 7 2.</_>
        <_>
          8 14 3 7 2.</_></rects>
      <tilted>0</tilted></_>
    <_>
      <rects>
        <_>
          5 7 8 16 -1.</_>
        <_>
          5 7 4 8 2.</_>
        <_>
          9 15 4 8 2.</_></rects>
      <tilted>0</tilted></_>
    <_>
      <rects>
        <_>
          5 7 15 2 -1.</_>
        <_>
          10 7 5 2 3.</_></rects>
      <tilted>0</tilted></_>
    <_>
      <rects>
        <_>
          5 8 15 2 -1.</_>
        <_>
          10 8 5 2 3.</_></rects>
      <tilted>0</tilted></_>
    <_>
      <rects>
        <_>
          5 9 4 10 -1.</_>
        <_>
          5 9 2 5 2.</_>
        <_>
          7 14 2 5 2.</_></rects>
      <tilted>0</tilted></_>
    <_>
      <rects>
        <_>
          5 9 12 6 -1.</_>
        <_>
          5 11 12 2 3.</_></rects>
      <tilted>0</tilted></_>
    <_>
      <rects>
        <_>
          5 11 15 9 -1.</_>
        <_>
          5 14 15 3 3.</_></rects>
      <tilted>0</tilted></_>
    <_>
      <rects>
        <_>
          5 14 14 4 -1.</_>
        <_>
          5 16 14 2 2.</_></rects>
      <tilted>0</tilted></_>
    <_>
      <rects>
        <_>
          5 14 17 9 -1.</_>
        <_>
          5 17 17 3 3.</_></rects>
      <tilted>0</tilted></_>
    <_>
      <rects>
        <_>
          5 15 14 8 -1.</_>
        <_>
          5 19 14 4 2.</_></rects>
      <tilted>0</tilted></_>
    <_>
      <rects>
        <_>
          5 15 15 4 -1.</_>
        <_>
          5 17 15 2 2.</_></rects>
      <tilted>0</tilted></_>
    <_>
      <rects>
        <_>
          5 17 13 6 -1.</_>
        <_>
          5 20 13 3 2.</_></rects>
      <tilted>0</tilted></_>
    <_>
      <rects>
        <_>
          5 19 15 4 -1.</_>
        <_>
          5 21 15 2 2.</_></rects>
      <tilted>0</tilted></_>
    <_>
      <rects>
        <_>
          6 0 12 8 -1.</_>
        <_>
          6 4 12 4 2.</_></rects>
      <tilted>0</tilted></_>
    <_>
      <rects>
        <_>
          6 0 17 8 -1.</_>
        <_>
          6 4 17 4 2.</_></rects>
      <tilted>0</tilted></_>
    <_>
      <rects>
        <_>
          6 15 10 4 -1.</_>
        <_>
          6 17 10 2 2.</_></rects>
      <tilted>0</tilted></_>
    <_>
      <rects>
        <_>
          6 19 11 4 -1.</_>
        <_>
          6 21 11 2 2.</_></rects>
      <tilted>0</tilted></_>
    <_>
      <rects>
        <_>
          7 0 10 24 -1.</_>
        <_>
          7 12 10 12 2.</_></rects>
      <tilted>0</tilted></_>
    <_>
      <rects>
        <_>
          7 3 10 3 -1.</_>
        <_>
          7 4 10 1 3.</_></rects>
      <tilted>0</tilted></_>
    <_>
      <rects>
        <_>
          7 8 4 12 -1.</_>
        <_>
          7 8 2 6 2.</_>
        <_>
          9 14 2 6 2.</_></rects>
      <tilted>0</tilted></_>
    <_>
      <rects>
        <_>
          7 8 10 12 -1.</_>
        <_>
          7 8 5 6 2.</_>
        <_>
          12 14 5 6 2.</_></rects>
      <tilted>0</tilted></_>
    <_>
      <rects>
        <_>
          7 9 2 15 -1.</_>
        <_>
          7 14 2 5 3.</_></rects>
      <tilted>0</tilted></_>
    <_>
      <rects>
        <_>
          7 9 6 10 -1.</_>
        <_>
          7 9 3 5 2.</_>
        <_>
          10 14 3 5 2.</_></rects>
      <tilted>0</tilted></_>
    <_>
      <rects>
        <_>
          7 9 8 10 -1.</_>
        <_>
          7 9 4 5 2.</_>
        <_>
          11 14 4 5 2.</_></rects>
      <tilted>0</tilted></_>
    <_>
      <rects>
        <_>
          7 11 17 6 -1.</_>
        <_>
          7 14 17 3 2.</_></rects>
      <tilted>0</tilted></_>
    <_>
      <rects>
        <_>
          8 0 7 16 -1.</_>
        <_>
          8 8 7 8 2.</_></rects>
      <tilted>0</tilted></_>
    <_>
      <rects>
        <_>
          8 0 8 3 -1.</_>
        <_>
          8 1 8 1 3.</_></rects>
      <tilted>0</tilted></_>
    <_>
      <rects>
        <_>
          8 0 9 6 -1.</_>
        <_>
          8 2 9 2 3.</_></rects>
      <tilted>0</tilted></_>
    <_>
      <rects>
        <_>
          8 1 6 6 -1.</_>
        <_>
          8 3 6 2 3.</_></rects>
      <tilted>0</tilted></_>
    <_>
      <rects>
        <_>
          8 4 3 12 -1.</_>
        <_>
          8 8 3 4 3.</_></rects>
      <tilted>0</tilted></_>
    <_>
      <rects>
        <_>
          8 4 5 6 -1.</_>
        <_>
          8 6 5 2 3.</_></rects>
      <tilted>0</tilted></_>
    <_>
      <rects>
        <_>
          8 6 2 3 -1.</_>
        <_>
          8 7 2 1 3.</_></rects>
      <tilted>0</tilted></_>
    <_>
      <rects>
        <_>
          8 7 4 14 -1.</_>
        <_>
          8 7 2 7 2.</_>
        <_>
          10 14 2 7 2.</_></rects>
      <tilted>0</tilted></_>
    <_>
      <rects>
        <_>
          8 8 1 10 -1.</_>
        <_>
          8 13 1 5 2.</_></rects>
      <tilted>0</tilted></_>
    <_>
      <rects>
        <_>
          8 8 8 12 -1.</_>
        <_>
          8 8 4 6 2.</_>
        <_>
          12 14 4 6 2.</_></rects>
      <tilted>0</tilted></_>
    <_>
      <rects>
        <_>
          8 8 10 12 -1.</_>
        <_>
          8 8 5 6 2.</_>
        <_>
          13 14 5 6 2.</_></rects>
      <tilted>0</tilted></_>
    <_>
      <rects>
        <_>
          8 9 15 10 -1.</_>
        <_>
          8 14 15 5 2.</_></rects>
      <tilted>0</tilted></_>
    <_>
      <rects>
        <_>
          9 0 6 2 -1.</_>
        <_>
          9 1 6 1 2.</_></rects>
      <tilted>0</tilted></_>
    <_>
      <rects>
        <_>
          9 0 6 20 -1.</_>
        <_>
          9 10 6 10 2.</_></rects>
      <tilted>0</tilted></_>
    <_>
      <rects>
        <_>
          9 0 8 6 -1.</_>
        <_>
          9 3 8 3 2.</_></rects>
      <tilted>0</tilted></_>
    <_>
      <rects>
        <_>
          9 2 10 6 -1.</_>
        <_>
          9 4 10 2 3.</_></rects>
      <tilted>0</tilted></_>
    <_>
      <rects>
        <_>
          9 4 2 12 -1.</_>
        <_>
          9 8 2 4 3.</_></rects>
      <tilted>0</tilted></_>
    <_>
      <rects>
        <_>
          9 5 3 9 -1.</_>
        <_>
          9 8 3 3 3.</_></rects>
      <tilted>0</tilted></_>
    <_>
      <rects>
        <_>
          9 7 9 6 -1.</_>
        <_>
          12 7 3 6 3.</_></rects>
      <tilted>0</tilted></_>
    <_>
      <rects>
        <_>
          9 9 5 6 -1.</_>
        <_>
          9 11 5 2 3.</_></rects>
      <tilted>0</tilted></_>
    <_>
      <rects>
        <_>
          10 0 14 6 -1.</_>
        <_>
          10 0 7 3 2.</_>
        <_>
          17 3 7 3 2.</_></rects>
      <tilted>0</tilted></_>
    <_>
      <rects>
        <_>
          10 0 10 8 -1.</_>
        <_>
          10 4 10 4 2.</_></rects>
      <tilted>0</tilted></_>
    <_>
      <rects>
        <_>
          10 2 3 6 -1.</_>
        <_>
          10 4 3 2 3.</_></rects>
      <tilted>0</tilted></_>
    <_>
      <rects>
        <_>
          10 2 4 6 -1.</_>
        <_>
          10 4 4 2 3.</_></rects>
      <tilted>0</tilted></_>
    <_>
      <rects>
        <_>
          10 3 5 6 -1.</_>
        <_>
          10 5 5 2 3.</_></rects>
      <tilted>0</tilted></_>
    <_>
      <rects>
        <_>
          10 3 12 8 -1.</_>
        <_>
          10 3 6 4 2.</_>
        <_>
          16 7 6 4 2.</_></rects>
      <tilted>0</tilted></_>
    <_>
      <rects>
        <_>
          10 7 10 12 -1.</_>
        <_>
          10 7 5 6 2.</_>
        <_>
          15 13 5 6 2.</_></rects>
      <tilted>0</tilted></_>
    <_>
      <rects>
        <_>
          10 7 12 16 -1.</_>
        <_>
          10 15 12 8 2.</_></rects>
      <tilted>0</tilted></_>
    <_>
      <rects>
        <_>
          10 8 2 14 -1.</_>
        <_>
          10 8 1 7 2.</_>
        <_>
          11 15 1 7 2.</_></rects>
      <tilted>0</tilted></_>
    <_>
      <rects>
        <_>
          10 8 9 3 -1.</_>
        <_>
          13 8 3 3 3.</_></rects>
      <tilted>0</tilted></_>
    <_>
      <rects>
        <_>
          10 8 3 10 -1.</_>
        <_>
          10 13 3 5 2.</_></rects>
      <tilted>0</tilted></_>
    <_>
      <rects>
        <_>
          10 8 10 12 -1.</_>
        <_>
          10 8 5 6 2.</_>
        <_>
          15 14 5 6 2.</_></rects>
      <tilted>0</tilted></_>
    <_>
      <rects>
        <_>
          10 9 6 10 -1.</_>
        <_>
          10 9 3 5 2.</_>
        <_>
          13 14 3 5 2.</_></rects>
      <tilted>0</tilted></_>
    <_>
      <rects>
        <_>
          10 9 4 15 -1.</_>
        <_>
          10 14 4 5 3.</_></rects>
      <tilted>0</tilted></_>
    <_>
      <rects>
        <_>
          10 17 6 6 -1.</_>
        <_>
          10 20 6 3 2.</_></rects>
      <tilted>0</tilted></_>
    <_>
      <rects>
        <_>
          11 0 3 9 -1.</_>
        <_>
          11 3 3 3 3.</_></rects>
      <tilted>0</tilted></_>
    <_>
      <rects>
        <_>
          11 3 2 12 -1.</_>
        <_>
          11 7 2 4 3.</_></rects>
      <tilted>0</tilted></_>
    <_>
      <rects>
        <_>
          11 3 2 15 -1.</_>
        <_>
          11 8 2 5 3.</_></rects>
      <tilted>0</tilted></_>
    <_>
      <rects>
        <_>
          11 3 3 3 -1.</_>
        <_>
          11 4 3 1 3.</_></rects>
      <tilted>0</tilted></_>
    <_>
      <rects>
        <_>
          11 4 2 12 -1.</_>
        <_>
          11 8 2 4 3.</_></rects>
      <tilted>0</tilted></_>
    <_>
      <rects>
        <_>
          11 4 5 3 -1.</_>
        <_>
          11 5 5 1 3.</_></rects>
      <tilted>0</tilted></_>
    <_>
      <rects>
        <_>
          11 7 8 16 -1.</_>
        <_>
          11 7 4 8 2.</_>
        <_>
          15 15 4 8 2.</_></rects>
      <tilted>0</tilted></_>
    <_>
      <rects>
        <_>
          11 12 9 1 -1.</_>
        <_>
          14 12 3 1 3.</_></rects>
      <tilted>0</tilted></_>
    <_>
      <rects>
        <_>
          12 0 6 2 -1.</_>
        <_>
          12 1 6 1 2.</_></rects>
      <tilted>0</tilted></_>
    <_>
      <rects>
        <_>
          12 0 12 18 -1.</_>
        <_>
          12 0 6 9 2.</_>
        <_>
          18 9 6 9 2.</_></rects>
      <tilted>0</tilted></_>
    <_>
      <rects>
        <_>
          12 2 6 12 -1.</_>
        <_>
          14 2 2 12 3.</_></rects>
      <tilted>0</tilted></_>
    <_>
      <rects>
        <_>
          12 7 3 9 -1.</_>
        <_>
          12 10 3 3 3.</_></rects>
      <tilted>0</tilted></_>
    <_>
      <rects>
        <_>
          12 9 4 6 -1.</_>
        <_>
          12 11 4 2 3.</_></rects>
      <tilted>0</tilted></_>
    <_>
      <rects>
        <_>
          13 4 1 9 -1.</_>
        <_>
          13 7 1 3 3.</_></rects>
      <tilted>0</tilted></_>
    <_>
      <rects>
        <_>
          13 5 3 9 -1.</_>
        <_>
          13 8 3 3 3.</_></rects>
      <tilted>0</tilted></_>
    <_>
      <rects>
        <_>
          13 9 9 5 -1.</_>
        <_>
          16 9 3 5 3.</_></rects>
      <tilted>0</tilted></_>
    <_>
      <rects>
        <_>
          14 7 4 12 -1.</_>
        <_>
          14 7 2 6 2.</_>
        <_>
          16 13 2 6 2.</_></rects>
      <tilted>0</tilted></_>
    <_>
      <rects>
        <_>
          14 8 6 5 -1.</_>
        <_>
          16 8 2 5 3.</_></rects>
      <tilted>0</tilted></_>
    <_>
      <rects>
        <_>
          15 0 9 10 -1.</_>
        <_>
          15 5 9 5 2.</_></rects>
      <tilted>0</tilted></_>
    <_>
      <rects>
        <_>
          15 2 1 15 -1.</_>
        <_>
          15 7 1 5 3.</_></rects>
      <tilted>0</tilted></_>
    <_>
      <rects>
        <_>
          15 3 2 15 -1.</_>
        <_>
          15 8 2 5 3.</_></rects>
      <tilted>0</tilted></_>
    <_>
      <rects>
        <_>
          15 7 2 14 -1.</_>
        <_>
          15 7 1 7 2.</_>
        <_>
          16 14 1 7 2.</_></rects>
      <tilted>0</tilted></_>
    <_>
      <rects>
        <_>
          15 7 2 9 -1.</_>
        <_>
          15 10 2 3 3.</_></rects>
      <tilted>0</tilted></_>
    <_>
      <rects>
        <_>
          16 0 6 10 -1.</_>
        <_>
          16 5 6 5 2.</_></rects>
      <tilted>0</tilted></_>
    <_>
      <rects>
        <_>
          16 2 8 8 -1.</_>
        <_>
          16 6 8 4 2.</_></rects>
      <tilted>0</tilted></_>
    <_>
      <rects>
        <_>
          16 12 4 9 -1.</_>
        <_>
          16 15 4 3 3.</_></rects>
      <tilted>0</tilted></_>
    <_>
      <rects>
        <_>
          17 2 7 8 -1.</_>
        <_>
          17 6 7 4 2.</_></rects>
      <tilted>0</tilted></_>
    <_>
      <rects>
        <_>
          17 6 4 16 -1.</_>
        <_>
          17 6 2 8 2.</_>
        <_>
          19 14 2 8 2.</_></rects>
      <tilted>0</tilted></_>
    <_>
      <rects>
        <_>
          17 7 2 14 -1.</_>
        <_>
          17 7 1 7 2.</_>
        <_>
          18 14 1 7 2.</_></rects>
      <tilted>0</tilted></_>
    <_>
      <rects>
        <_>
          18 0 6 1 -1.</_>
        <_>
          21 0 3 1 2.</_></rects>
      <tilted>0</tilted></_>
    <_>
      <rects>
        <_>
          18 0 4 4 -1.</_>
        <_>
          18 2 4 2 2.</_></rects>
      <tilted>0</tilted></_>
    <_>
      <rects>
        <_>
          18 6 6 14 -1.</_>
        <_>
          18 6 3 7 2.</_>
        <_>
          21 13 3 7 2.</_></rects>
      <tilted>0</tilted></_>
    <_>
      <rects>
        <_>
          18 14 4 9 -1.</_>
        <_>
          18 17 4 3 3.</_></rects>
      <tilted>0</tilted></_>
    <_>
      <rects>
        <_>
          18 16 6 6 -1.</_>
        <_>
          18 18 6 2 3.</_></rects>
      <tilted>0</tilted></_>
    <_>
      <rects>
        <_>
          18 22 6 2 -1.</_>
        <_>
          18 23 6 1 2.</_></rects>
      <tilted>0</tilted></_>
    <_>
      <rects>
        <_>
          19 11 5 9 -1.</_>
        <_>
          19 14 5 3 3.</_></rects>
      <tilted>0</tilted></_>
    <_>
      <rects>
        <_>
          20 22 4 1 -1.</_>
        <_>
          22 22 2 1 2.</_></rects>
      <tilted>0</tilted></_>
    <_>
      <rects>
        <_>
          21 12 3 6 -1.</_>
        <_>
          21 14 3 2 3.</_></rects>
      <tilted>0</tilted></_>
    <_>
      <rects>
        <_>
          21 15 3 6 -1.</_>
        <_>
          21 17 3 2 3.</_></rects>
      <tilted>0</tilted></_>
    <_>
      <rects>
        <_>
          21 16 3 8 -1.</_>
        <_>
          21 20 3 4 2.</_></rects>
      <tilted>0</tilted></_>
    <_>
      <rects>
        <_>
          21 18 1 6 -1.</_>
        <_>
          21 21 1 3 2.</_></rects>
      <tilted>0</tilted></_>
    <_>
      <rects>
        <_>
          22 1 2 3 -1.</_>
        <_>
          22 2 2 1 3.</_></rects>
      <tilted>0</tilted></_>
    <_>
      <rects>
        <_>
          22 3 2 1 -1.</_>
        <_>
          23 3 1 1 2.</_></rects>
      <tilted>0</tilted></_>
    <_>
      <rects>
        <_>
          22 15 2 1 -1.</_>
        <_>
          23 15 1 1 2.</_></rects>
      <tilted>0</tilted></_>
    <_>
      <rects>
        <_>
          22 21 2 1 -1.</_>
        <_>
          23 21 1 1 2.</_></rects>
      <tilted>0</tilted></_>
    <_>
      <rects>
        <_>
          22 22 2 1 -1.</_>
        <_>
          23 22 1 1 2.</_></rects>
      <tilted>0</tilted></_>
    <_>
      <rects>
        <_>
          23 12 1 9 -1.</_>
        <_>
          23 15 1 3 3.</_></rects>
      <tilted>0</tilted></_></features></cascade>
</opencv_storage>
